%YAML:1.0
---
opencv_ml_ann_mlp:
   format: 3
   layer_sizes: [ 256, 8, 4, 26 ]
   activation_function: SIGMOID_SYM
   f_param1: 6.6666666666666663e-01
   f_param2: 1.7159000000000000e+00
   min_val: -9.4999999999999996e-01
   max_val: 9.4999999999999996e-01
   min_val1: -9.7999999999999998e-01
   max_val1: 9.7999999999999998e-01
   training_params:
      train_method: BACKPROP
      dw_scale: 1.0000000000000000e-03
      moment_scale: 0.
      term_criteria:
         iterations: 300
   input_scale:
      - 1.9907289278430376e-01
      - -5.5989251095585432e-02
      - 1.
      - 0.
      - 1.
      - 0.
      - 1.
      - 0.
      - 1.6287782136897579e+00
      - -5.5989251095585432e-02
      - 2.6156643826168485e-01
      - -7.8469931478505450e-02
      - 5.6320046973642124e-02
      - -7.8496065469513709e-02
      - 5.9934968848014400e-02
      - -8.5032737053120422e-02
      - 5.0348891514918608e-02
      - -7.9299504135996804e-02
      - 4.9760099496040412e-02
      - -7.9305158571814402e-02
      - 1.6589407732025310e-01
      - -5.5989251095585425e-02
      - 1.
      - 0.
      - 1.
      - 0.
      - 1.
      - 0.
      - 1.
      - 0.
      - 1.
      - 0.
      - 1.
      - 0.
      - 1.
      - 0.
      - 1.
      - 0.
      - 1.
      - 0.
      - 2.7171256379845028e-02
      - -1.5835747858878430e-01
      - 2.3584395327910096e-02
      - -1.8521120455949397e-01
      - 2.4429035521072260e-02
      - -1.7107958938350917e-01
      - 2.2600934274201168e-02
      - -1.7995993915832681e-01
      - 2.2546934830366145e-02
      - -1.9348088451307949e-01
      - 2.8990288073476176e-02
      - -1.6542583131927344e-01
      - 3.4977637211994088e-02
      - -1.2012632279994220e-01
      - 4.8910982324640292e-02
      - -8.8498308643646023e-02
      - 4.9760099496040412e-02
      - -7.9305158571814402e-02
      - 8.1135902636916835e-02
      - -7.9107505070993914e-02
      - 1.
      - 0.
      - 1.
      - 0.
      - 1.
      - 0.
      - 3.9876388178214879e-02
      - -1.2199682508272615e-01
      - 2.1527963325558626e-02
      - -1.8991700146266252e-01
      - 9.1613746394590967e-03
      - -6.1707584055906683e-01
      - 7.9476899832552853e-03
      - -9.3439997671884478e-01
      - 7.8648141731295258e-03
      - -1.0317407317931386e+00
      - 7.8787963599500060e-03
      - -1.0208457958632724e+00
      - 8.3025853448132139e-03
      - -9.3206898727209342e-01
      - 9.2414197216761050e-03
      - -7.6386109886979059e-01
      - 1.0541867715390184e-02
      - -5.8332766136379377e-01
      - 1.3271137549245384e-02
      - -3.8017661848103890e-01
      - 1.8197002471334312e-02
      - -2.7841413781141500e-01
      - 2.3795128597478055e-02
      - -1.7623267117507185e-01
      - 4.5875274426273531e-02
      - -1.0967057792531015e-01
      - 4.3674118770580257e-02
      - -9.9768065066544273e-02
      - 2.5072649746107195e-01
      - -7.7568510152019141e-02
      - 5.1326842217172687e-02
      - -8.1320965637832976e-02
      - 3.0130988018552948e-02
      - -1.5545706630822162e-01
      - 8.1554454659981471e-03
      - -8.3144766525851110e-01
      - 1.0776137612629213e-02
      - -2.2774356581390656e+00
      - 8.2645589485610821e-03
      - -9.9071400395875975e-01
      - 8.6103669225835160e-03
      - -1.3924577757615531e+00
      - 1.3503463220057991e-02
      - -3.0996355855191862e+00
      - 1.7563907948684374e-02
      - -4.2163807647187026e+00
      - 1.0262549464997411e-02
      - -2.0695713814850403e+00
      - 9.2574191714334796e-03
      - -1.6396046530005122e+00
      - 8.6605562618551658e-03
      - -1.0797007234701563e+00
      - 9.4048942228413725e-03
      - -7.9694722420802078e-01
      - 1.2475807045155404e-02
      - -4.2460629540246092e-01
      - 1.6102289443301047e-02
      - -2.8375253178367066e-01
      - 2.2510650056811271e-02
      - -2.0484691551698256e-01
      - 4.2022959909783955e-02
      - -1.4222145494467506e-01
      - 1.
      - 0.
      - 1.0744017920189403e-01
      - -7.3193622081290308e-02
      - 1.0508920602017751e-02
      - -5.4751476336512483e-01
      - 7.9143017724483452e-03
      - -1.0478782868651997e+00
      - 7.8981761065446028e-03
      - -1.0093622246160674e+00
      - 7.9370133585238908e-03
      - -9.9907155650419477e-01
      - 8.2365863960809568e-03
      - -1.3151254541292512e+00
      - 1.1799133468891693e-02
      - -2.5824984657115788e+00
      - 1.9237490370318796e-02
      - -4.6493407195616099e+00
      - 2.7140892286347494e-02
      - -6.7440876567153785e+00
      - 3.0709650203947971e-02
      - -7.6558198281873420e+00
      - 1.3712335120836970e-02
      - -3.1098290522640668e+00
      - 8.7429428460837361e-03
      - -1.2566887473389612e+00
      - 1.1466286428633673e-02
      - -4.7749916546241350e-01
      - 1.5138379895338666e-02
      - -2.9898300293293867e-01
      - 2.1528975098966969e-02
      - -2.2847624823778698e-01
      - 1.
      - 0.
      - 5.7299214489568706e-02
      - -8.1293260557075600e-02
      - 7.9353570385691276e-03
      - -9.2151813409458549e-01
      - 7.9537313186840621e-03
      - -8.9755372390312549e-01
      - 7.9692060767570846e-03
      - -9.1267332594060513e-01
      - 7.8709297641005749e-03
      - -9.4374907537117181e-01
      - 7.8682404517027085e-03
      - -9.9759453627025707e-01
      - 8.8477965938692556e-03
      - -1.5752119367166419e+00
      - 1.4043129973374455e-02
      - -3.2428220195391622e+00
      - 2.4175204513514927e-02
      - -5.9815499767564315e+00
      - 3.5629036822253130e-02
      - -8.9431109238656745e+00
      - 2.6477797857616225e-02
      - -6.5209851536210461e+00
      - 1.2953818209190650e-02
      - -2.8909683788361233e+00
      - 8.9732476020173407e-03
      - -1.1087569068242678e+00
      - 1.0801209188195082e-02
      - -5.1950440817347032e-01
      - 1.5708518022770870e-02
      - -2.9787277300679260e-01
      - 2.0899933514764945e-02
      - -1.9717781025336051e-01
      - 2.2910138787909543e-02
      - -1.9022574612336141e-01
      - 9.8681279995801677e-03
      - -6.8046910137104988e-01
      - 7.8738805839187152e-03
      - -9.6021973720888731e-01
      - 7.9147393411134713e-03
      - -9.3539852231740739e-01
      - 7.8634625026863889e-03
      - -9.6012877157800802e-01
      - 7.8750348540572151e-03
      - -1.0089642311921616e+00
      - 8.0958520669562432e-03
      - -1.2168824642766509e+00
      - 1.4268324683918223e-02
      - -3.3212646897844271e+00
      - 2.3075097179559294e-02
      - -5.6835406546828269e+00
      - 1.7834529280412841e-02
      - -4.2453424964902728e+00
      - 3.3962808841868093e-02
      - -8.4890040700249294e+00
      - 1.4658840044869810e-02
      - -3.3902690402524054e+00
      - 8.7027479276795810e-03
      - -1.3087573078866390e+00
      - 9.3519919839666552e-03
      - -7.7127631390269991e-01
      - 1.2250785697994869e-02
      - -4.3547714785841135e-01
      - 1.5314301846254763e-02
      - -3.0686032324432982e-01
      - 8.6415783271070606e-03
      - -6.5754309589603066e-01
      - 9.7111161801099778e-03
      - -5.4312451961071340e-01
      - 7.9104707498637069e-03
      - -1.0565669697497648e+00
      - 7.8696369831268778e-03
      - -1.0069200519910841e+00
      - 7.8649781635038631e-03
      - -1.0247574985910313e+00
      - 7.8679557727517457e-03
      - -1.0787213238060542e+00
      - 1.0161232577583813e-02
      - -2.0666994447251326e+00
      - 1.4668823883989827e-02
      - -3.4328715094507194e+00
      - 2.6101160071561123e-02
      - -6.4782263636362476e+00
      - 3.3825214313695763e-02
      - -8.4782899677278429e+00
      - 3.2663571443450244e-02
      - -8.1828370885488511e+00
      - 2.3838619337141917e-02
      - -5.8408342160269129e+00
      - 1.2661875854143544e-02
      - -2.7787277929158893e+00
      - 8.5635613823645609e-03
      - -1.1671331330283301e+00
      - 1.0760605794005076e-02
      - -6.8003665928801460e-01
      - 3.5297644916038387e-02
      - -1.1339368429277331e-01
      - 1.5475868172292365e-02
      - -3.1638477994730207e-01
      - 8.2279140332185245e-03
      - -8.1194084169054559e-01
      - 8.9098749647457173e-03
      - -1.4332647615164080e+00
      - 1.2082630874507602e-02
      - -2.6851759207519006e+00
      - 1.0223807246668446e-02
      - -2.1071905723336584e+00
      - 1.0997755766603097e-02
      - -2.3566815888359609e+00
      - 1.4622929289664913e-02
      - -3.4093816605394047e+00
      - 1.2072854385847450e-02
      - -2.6217335128966415e+00
      - 1.4566994242791008e-02
      - -3.3325185860375042e+00
      - 1.2325030295452519e-02
      - -2.6865099629315896e+00
      - 3.1817222788756011e-02
      - -7.9473456797039628e+00
      - 2.8272575998513853e-02
      - -7.0399597754299448e+00
      - 1.3988738824582292e-02
      - -3.1750502799007392e+00
      - 8.4795226365032058e-03
      - -1.2242575791533894e+00
      - 9.6870737616507364e-03
      - -8.4362303621775858e-01
      - 3.5296875323169379e-02
      - -1.1250879009260240e-01
      - 2.7694768457227206e-02
      - -1.5301359572618031e-01
      - 1.7906536197764417e-02
      - -2.4649466234735079e-01
      - 1.0333115734788493e-02
      - -4.9847596124353116e-01
      - 9.0320092184238716e-03
      - -6.2967216766818179e-01
      - 8.4738296558620092e-03
      - -1.1541355991284055e+00
      - 1.5600360104587152e-02
      - -3.6821724959358364e+00
      - 2.0792194787005787e-02
      - -5.0710863573332929e+00
      - 1.9823613655206542e-02
      - -4.7720393971495945e+00
      - 1.2348864991736989e-02
      - -2.6883864989042414e+00
      - 1.1387760636329016e-02
      - -2.3860205473268370e+00
      - 2.2460194972155748e-02
      - -5.5057658568775416e+00
      - 2.6373046115669485e-02
      - -6.5082084551943371e+00
      - 1.5960062530603229e-02
      - -3.7608391097504263e+00
      - 8.6738652491130924e-03
      - -1.4083646581669316e+00
      - 8.8515702333498252e-03
      - -9.4883300670114279e-01
      - 7.0258749961759348e-02
      - -5.6646117156668473e-02
      - 7.0238058424421379e-02
      - -5.9263361795605540e-02
      - 3.5222154490949273e-02
      - -1.1832442524303272e-01
      - 2.6623412504494667e-02
      - -1.6090524932403966e-01
      - 1.8623117531159392e-02
      - -2.2830778148355718e-01
      - 1.9029454567691163e-02
      - -2.2008753548445312e-01
      - 1.5508373966588437e-02
      - -2.8443327128096102e-01
      - 9.4254464253035238e-03
      - -6.9512667386613491e-01
      - 8.6806517075855762e-03
      - -1.4940757940584086e+00
      - 1.3038158890638505e-02
      - -2.9024571460422641e+00
      - 1.3620642234359874e-02
      - -3.0401699112161062e+00
      - 1.1341260513801778e-02
      - -2.3730169967565997e+00
      - 9.0723862079597987e-03
      - -1.5764972108744144e+00
      - 9.0398148185107108e-03
      - -1.5880977176631770e+00
      - 8.4429600139712332e-03
      - -1.2690824271000509e+00
      - 8.5036351650625407e-03
      - -1.0146696922111968e+00
      - 6.8189826845697840e-02
      - -7.1173131770197115e-02
      - 6.8122005259342602e-02
      - -7.2805393120922407e-02
      - 4.3121024317797310e-02
      - -9.7696070720009534e-02
      - 6.8989889561403617e-02
      - -6.6187175297971593e-02
      - 7.0261344464444930e-02
      - -5.6209075571555946e-02
      - 4.6051315801150593e-02
      - -9.5844301011144661e-02
      - 2.9530020513899066e-02
      - -1.4442025657578761e-01
      - 2.3722943947231595e-02
      - -1.7139827001874827e-01
      - 1.1493887004316951e-02
      - -4.6751385390059197e-01
      - 7.8952209068013698e-03
      - -9.8579234791015224e-01
      - 8.1287069357860332e-03
      - -1.0350638172264797e+00
      - 8.8813782575618352e-03
      - -8.1378403715615799e-01
      - 8.6976467779598769e-03
      - -1.2072333727808311e+00
      - 8.5792242843841793e-03
      - -1.1744689944563054e+00
      - 8.5921887210419108e-03
      - -1.0203492612134801e+00
      - 8.9920320159633128e-03
      - -9.3334482315694201e-01
      - 1.1128330654174180e-01
      - -5.8075975601471500e-02
      - 3.4589036540027811e+00
      - -9.7281665268828227e-02
      - 6.9806034732744687e-02
      - -6.3698006693629530e-02
      - 9.6842364940540007e-02
      - -5.8105418964324002e-02
      - 6.4767881605021685e-02
      - -7.4685463475790623e-02
      - 7.0202062805064025e-02
      - -6.2084949293228497e-02
      - 6.2971749063491123e-02
      - -7.5566098876189342e-02
      - 4.0686781491113148e-02
      - -9.9555468461067484e-02
      - 2.0550259195186330e-02
      - -2.0986952203084042e-01
      - 8.3741417741009343e-03
      - -7.5843555280310393e-01
      - 7.9206669949391673e-03
      - -9.6278182531921497e-01
      - 9.4977507246477993e-03
      - -6.5258451619634739e-01
      - 9.2619347027884397e-03
      - -8.8810376381362655e-01
      - 8.5501752336802420e-03
      - -1.0800741670970513e+00
      - 8.7446777926903970e-03
      - -1.0038070292465511e+00
      - 9.7220283852504832e-03
      - -9.0129279399012763e-01
      - 1.9792648659489770e-01
      - -6.8655750037605143e-02
      - 3.0127619804825767e-01
      - -7.4377561393163621e-02
      - 1.7221593075832659e-01
      - -5.8122876630935225e-02
      - 4.8002400180015004e+00
      - -9.0004500337528132e-02
      - 2.5955973828228418e-01
      - -5.8400941113513939e-02
      - 1.4392237481253760e+00
      - -9.8946632683619612e-02
      - 9.2053134711603479e-02
      - -7.7094500320967915e-02
      - 4.9724183903772416e-02
      - -8.6395769532804575e-02
      - 3.6450159682558839e-02
      - -1.3702981905661962e-01
      - 1.0628330504483930e-02
      - -4.9232419708739156e-01
      - 7.9219366554626400e-03
      - -9.6075762394328001e-01
      - 8.5279185702872261e-03
      - -8.2462307600124263e-01
      - 1.0268896782334454e-02
      - -5.6924987506822156e-01
      - 8.2196458201856393e-03
      - -9.9026183018686487e-01
      - 8.5803828949829065e-03
      - -9.6883248362975738e-01
      - 9.7903134453849339e-03
      - -1.0251681966498700e+00
      - 2.4321418466488653e+00
      - -1.2920753560322096e-01
      - 1.7197343215693910e+00
      - -1.2898007411770432e-01
      - 4.9763649364423586e+00
      - -7.7755702131911852e-02
      - 4.3486128799521877e+00
      - -6.7947076249252933e-02
      - 4.3486128799521877e+00
      - -6.7947076249252933e-02
      - 1.0177062819625113e-01
      - -5.8518111212844393e-02
      - 4.9908697957784884e+00
      - -1.0917527678265443e-01
      - 4.9727346620092192e-02
      - -8.3604101505029990e-02
      - 3.8237397184842793e-02
      - -1.2415204898453645e-01
      - 2.1142839216757494e-02
      - -2.0772839530464238e-01
      - 8.0584498918556853e-03
      - -8.7864804742730218e-01
      - 7.9212186128078919e-03
      - -9.9874189803424995e-01
      - 8.6721827955626076e-03
      - -8.5846479504698969e-01
      - 8.7306813903535677e-03
      - -1.1640726631275793e+00
      - 8.3522468124304309e-03
      - -1.0488333934709513e+00
      - 9.4927783603070293e-03
      - -1.0049589141003787e+00
      - 3.3996414629706817e+00
      - -1.0623879571783380e-01
      - 1.
      - 0.
      - 5.6710496400666868e+00
      - -7.0888120500833582e-02
      - 1.7366955561478246e+00
      - -9.2261951420353178e-02
      - 8.9582801752936678e+00
      - -5.5989251095585425e-02
      - 1.1046755283365170e-01
      - -8.0779398009607803e-02
      - 9.2010144684896780e-02
      - -7.5620837662899537e-02
      - 1.0999486559388092e+00
      - -1.4436826109196871e-01
      - 4.9758644269574333e-02
      - -8.1013292701400716e-02
      - 3.6347859869144065e-02
      - -1.3868980281320281e-01
      - 9.4997605459793688e-03
      - -5.7678389889947868e-01
      - 7.9467663184043993e-03
      - -9.3481288913655258e-01
      - 8.0126831204084051e-03
      - -9.7446746561541842e-01
      - 8.4995562876391297e-03
      - -1.2013591590309933e+00
      - 8.6410514104772167e-03
      - -9.0520414181880393e-01
      - 8.6728360792458544e-03
      - -8.2559978951871005e-01
   output_scale:
      - 5.2631578947368418e-01
      - 4.9999999999999994e-01
      - 1.
      - 0.
      - 5.2631578947368418e-01
      - 4.9999999999999994e-01
      - 1.
      - 0.
      - 1.
      - 0.
      - 1.
      - 0.
      - 1.
      - 0.
      - 1.
      - 0.
      - 1.
      - 0.
      - 1.
      - 0.
      - 1.
      - 0.
      - 1.
      - 0.
      - 1.
      - 0.
      - 1.
      - 0.
      - 1.
      - 0.
      - 1.
      - 0.
      - 1.
      - 0.
      - 1.
      - 0.
      - 1.
      - 0.
      - 1.
      - 0.
      - 1.
      - 0.
      - 1.
      - 0.
      - 1.
      - 0.
      - 1.
      - 0.
      - 1.
      - 0.
      - 1.
      - 0.
   inv_output_scale:
      - 1.8999999999999999e+00
      - -9.4999999999999996e-01
      - 1.
      - 0.
      - 1.8999999999999999e+00
      - -9.4999999999999996e-01
      - 1.
      - 0.
      - 1.
      - 0.
      - 1.
      - 0.
      - 1.
      - 0.
      - 1.
      - 0.
      - 1.
      - 0.
      - 1.
      - 0.
      - 1.
      - 0.
      - 1.
      - 0.
      - 1.
      - 0.
      - 1.
      - 0.
      - 1.
      - 0.
      - 1.
      - 0.
      - 1.
      - 0.
      - 1.
      - 0.
      - 1.
      - 0.
      - 1.
      - 0.
      - 1.
      - 0.
      - 1.
      - 0.
      - 1.
      - 0.
      - 1.
      - 0.
      - 1.
      - 0.
      - 1.
      - 0.
   weights:
      -
         - 1.6941703623249006e-03
         - 2.8059206854131168e-03
         - 4.3079137507156138e-03
         - 1.6872480561007579e-02
         - 3.7727536321896608e-04
         - 1.3793423859420424e-03
         - 1.0014622139724604e-02
         - -6.6909522912575650e-03
         - 1.5255639818571212e-03
         - -1.6820540366797006e-03
         - 5.1756143852828085e-03
         - -1.8587944247140584e-03
         - -3.9892860234826957e-03
         - 6.7313201710375060e-04
         - 2.6791358735801115e-03
         - 3.8352877550285138e-03
         - -3.7787104067941273e-03
         - 4.2705964857084671e-03
         - -3.4344917253946099e-03
         - 4.1076469104089032e-03
         - -6.1270613283667371e-03
         - 5.7068477386009470e-03
         - -1.9803618254161373e-03
         - 6.2402172251154594e-03
         - -7.2706338650187245e-03
         - 6.5052556948878466e-03
         - 1.3045993524808182e-03
         - -6.9607025694219653e-03
         - 6.2382286687865801e-03
         - -1.8773375632281503e-03
         - 3.1375766273618222e-03
         - -7.2543010445545626e-03
         - -1.1759254866086737e-03
         - 4.6053802433683143e-03
         - 4.8106249587518629e-03
         - 2.7581342918675520e-03
         - -1.1053922863735470e-03
         - -1.7190564530636715e-03
         - 3.0391429734097980e-03
         - -2.2775638214640502e-03
         - 4.2400041864235419e-03
         - -2.2952471602431911e-05
         - 4.3107200868446674e-03
         - 1.3555627609163861e-02
         - -6.7422709888760339e-03
         - -3.5174997310842919e-03
         - -7.1410724481218426e-04
         - 1.2947404838072453e-03
         - 1.4841575038740432e-02
         - 9.6324994039428849e-04
         - 1.2884990352842033e-03
         - 8.1541028075815085e-03
         - 2.8689298559997421e-03
         - 5.5951527731535151e-03
         - 8.1598691134929461e-03
         - -1.8457956834450459e-03
         - 1.3548721793483919e-02
         - -2.5225254072970562e-03
         - 8.7467321495520653e-03
         - 1.6909918372582905e-02
         - -9.1605785222299823e-03
         - 3.8262431213012048e-03
         - 1.5838802816651613e-02
         - 3.7019492318321589e-03
         - 4.5236169356538940e-03
         - -4.2236515760895469e-03
         - 1.2042850546642066e-02
         - 1.4795523459465068e-02
         - -8.6525664370020461e-03
         - 5.0580698805916988e-04
         - -1.7698163219495599e-03
         - -1.6153495016080787e-03
         - 1.4452700047697857e-02
         - -1.8427484919676061e-03
         - 6.5059408461048494e-03
         - 5.3236628691846572e-03
         - -1.4768678592469984e-03
         - -1.5151385025808468e-03
         - 4.4018983225017306e-03
         - 6.2075039371746058e-03
         - 1.3251673769257398e-02
         - -5.8733213365391610e-03
         - 1.0645736075073312e-02
         - 3.0906055156414429e-03
         - 2.7517057754385681e-03
         - -5.5235306679511124e-03
         - 6.5898760425816896e-03
         - 6.4961931201203442e-03
         - 8.4007800208060323e-04
         - -5.6035976919023758e-03
         - -4.4768156770116111e-03
         - -2.8512287863441585e-03
         - -6.7633672573320265e-03
         - -2.4048170990490082e-03
         - 6.9759699734677138e-03
         - -1.2514840213740564e-03
         - -5.2131521229223749e-03
         - 2.0319517529537373e-03
         - -7.4873111964508642e-03
         - -1.6968184103182502e-03
         - -6.4705964971498316e-04
         - 3.4699816456021495e-03
         - -4.9296381836119226e-03
         - -6.8923332914589243e-03
         - -4.5717752537089949e-03
         - -2.6011640781038275e-04
         - -2.5883432513544536e-03
         - 3.5567006273379441e-03
         - 7.1757457075981874e-03
         - 1.0158447327066969e-03
         - -1.4617138272364951e-03
         - 2.6006841477439345e-03
         - -3.4674057839086513e-03
         - 3.9305914809525310e-03
         - 1.9377264985326337e-03
         - 4.4063792029081011e-03
         - 2.5432942753068049e-03
         - 4.1472575972131163e-03
         - -1.8507306990260687e-03
         - -2.2595495050828436e-03
         - -5.2872809382236317e-03
         - 7.0906957335955005e-04
         - -1.9347536494115499e-03
         - -3.5197515463542585e-03
         - 4.2720576595109833e-03
         - -9.4957023909992655e-04
         - 6.4273066079063969e-03
         - -3.4620856407010302e-03
         - -4.2055550167909312e-03
         - -5.8870873219157840e-03
         - -6.6203044760171125e-03
         - 2.0732670794502406e-04
         - -5.5839917993157047e-03
         - -7.4908081007027750e-03
         - 5.2382129872800805e-03
         - 4.5396199569506784e-03
         - -2.2282083877517560e-04
         - 2.2998169220123333e-03
         - 1.4762003528712645e-03
         - -5.3206911660373685e-03
         - 3.5032362184845710e-03
         - -6.5577468199737596e-03
         - -5.1797714485044529e-03
         - -1.0003608307180261e-03
         - -3.3696622555225340e-03
         - -2.3152984107512064e-03
         - 7.8642368255124190e-03
         - 1.6710492061222098e-04
         - 6.3234747152646686e-03
         - 3.0464467813404485e-03
         - 6.9370124788218166e-03
         - -3.4771076651493021e-03
         - -2.4267477589711684e-03
         - 4.0046793979175727e-03
         - 4.6810604027845738e-03
         - -1.3449331296391852e-04
         - 4.9237693383286131e-03
         - -6.5559050673863837e-03
         - -3.1158957265956530e-03
         - 3.1849388428026692e-03
         - 8.4107561312168691e-02
         - 1.6643691111763628e-02
         - 5.2319939615872120e-02
         - 6.9929050338375071e-02
         - -2.1375668008980317e-02
         - 1.7529694690602202e-02
         - 4.4218922028418768e-02
         - -1.0677830200941858e-02
         - 4.9922171488606559e-02
         - 5.4656501427692416e-03
         - 2.6881196565670382e-02
         - 4.7968572343602613e-02
         - -1.8968028567103307e-02
         - 1.5792477316108125e-02
         - 2.8687468994259911e-02
         - 4.4387843924638837e-03
         - 4.3826840949551985e-02
         - 6.4753162100832252e-03
         - 2.9625721557697174e-02
         - 3.3269981276256869e-02
         - -1.7873934675534615e-02
         - 5.4268279562192084e-03
         - 2.6014860510535240e-02
         - -1.3442129044632322e-03
         - 3.7837860214190701e-02
         - 9.5545802469404245e-04
         - 1.5064924733877225e-02
         - 3.8436180113201726e-02
         - -1.0883151866740104e-02
         - 8.0094004415427692e-03
         - 1.8447424846071887e-02
         - -4.7169135059728935e-03
         - 5.2828187116015286e-02
         - 5.7285857096548961e-03
         - 2.7448722934967879e-02
         - 4.3806382190955562e-02
         - -7.1786959943972457e-03
         - 7.5573855521274659e-03
         - 2.8360823322793844e-02
         - -8.2810567512571071e-03
         - 1.5953581245109781e-02
         - -1.9825313579493577e-03
         - 1.4339322085380380e-02
         - 1.8414535345474117e-02
         - -1.3631490578546061e-02
         - 8.6096405394537855e-03
         - 1.3266197320595148e-02
         - -1.9836744804953882e-03
         - 2.6231919945206614e-02
         - 3.2709369161961806e-04
         - 1.8493035265646243e-02
         - 2.4334401449956484e-02
         - -8.5296121112506031e-03
         - 8.1109883640951511e-03
         - 1.8997539662591365e-02
         - -4.7373917890449673e-04
         - 1.2149915119711569e-02
         - -2.6127716010355246e-03
         - 1.4199181822435363e-02
         - 1.7615383893888874e-02
         - -4.9220294835239384e-03
         - 1.0889141125374488e-02
         - 9.1267317764124820e-03
         - 3.8901728449200592e-03
         - 1.4744420162073819e-02
         - 1.8752447050287724e-03
         - 5.3536341278573301e-03
         - 1.2445488704743992e-02
         - 1.1792334890179208e-03
         - -1.5524739456903081e-03
         - 6.2047736453961890e-03
         - -2.2137735747636035e-03
         - 2.5650389576193774e-03
         - 1.3960982007860810e-03
         - 9.7438651320131786e-04
         - 9.2992394001111013e-03
         - 4.7706229520150576e-04
         - -3.5588653549384320e-03
         - 7.9136272875639062e-03
         - 5.7923695819088773e-03
         - -6.2118258892289273e-03
         - -4.4863517090221157e-03
         - 7.2010397522224328e-04
         - -4.8793975083272316e-03
         - 5.2137602447355422e-03
         - -6.5120648443854042e-03
         - 6.9061020865311398e-03
         - 3.0467421706755833e-03
         - 3.2463687136513870e-03
         - 3.5073176501060556e-03
         - -4.5357287897345588e-04
         - 4.4590368241862995e-03
         - 1.0767699483696636e-03
         - 2.7232169375146767e-03
         - -9.9496544185925860e-04
         - -1.2860380382276946e-03
         - -1.2910461940525140e-03
         - 1.1044940094108433e-03
         - -1.9075160072143215e-03
         - -6.5526444770574468e-04
         - 1.6748851112507001e-03
         - 5.7015634759778793e-03
         - -5.5474253026420832e-03
         - 4.5739346641399054e-03
         - -1.7793836453598264e-03
         - -2.5759472990635195e-03
         - -1.0106227605024963e-02
         - -2.8480371222501717e-03
         - 6.8658787726195783e-03
         - 4.4003702190790377e-03
         - -7.4910724675940959e-03
         - -5.0849252025957975e-03
         - 4.9585296340150561e-02
         - 9.5499053177930775e-03
         - 2.6131336271572912e-02
         - 3.6647957477262620e-02
         - -1.5044827925235952e-02
         - 8.3108529415207785e-03
         - 1.9887192229402918e-02
         - -7.3464667069243230e-04
         - 4.4581569806378576e-02
         - 5.6590829893986829e-03
         - 2.3524242861860029e-02
         - 4.7627502452684781e-02
         - -1.3588080051408154e-02
         - 1.2996399868397611e-02
         - 1.9649457172534801e-02
         - 8.5568597910757607e-04
         - 4.2509923312540311e-02
         - 1.5294880203647698e-03
         - 1.5416788395032190e-02
         - 2.4669397062692285e-02
         - -5.3346518357088426e-03
         - 1.2081603871543651e-02
         - 1.5872952588326220e-02
         - -3.8841561923659081e-03
         - 8.7893900893170715e-02
         - 5.8649824461399448e-03
         - 3.6491184941584945e-02
         - 6.0357986436162386e-02
         - -2.6154833590168760e-02
         - 1.1069266834459924e-02
         - 3.3191994543514888e-02
         - -5.9568184277149555e-03
         - 9.1500052781078839e-02
         - 1.4717328984700011e-02
         - 3.8832049392868329e-02
         - 7.1104146864537018e-02
         - -1.6670939911291441e-02
         - 1.3760823297785140e-02
         - 4.3214430542744063e-02
         - -8.6530393591860693e-04
         - 9.3380628298027624e-02
         - 6.5440200853844749e-03
         - 4.1273689382374093e-02
         - 7.4443370212103802e-02
         - -2.6583623863074682e-02
         - 1.0502855734839469e-02
         - 3.6014346286985965e-02
         - -1.9755985254049807e-03
         - 5.0495237861947033e-02
         - 5.3665222530879624e-03
         - 1.2765152800467656e-02
         - 4.0862930961987273e-02
         - -1.3316801887499881e-02
         - 6.0538192446849244e-03
         - 1.6297407595270041e-02
         - 5.1720484894428164e-03
         - 1.8875399967133239e-02
         - -6.9160728803305503e-03
         - 5.4829753821887487e-03
         - 9.1379718052680622e-03
         - -2.3898671408944768e-04
         - 7.6260406064005415e-03
         - 9.5543921182727142e-04
         - 2.2455377495675375e-03
         - 2.0080167240292775e-02
         - -2.2290984448407360e-03
         - 1.6829595523169809e-03
         - 3.8994437994488498e-03
         - 4.7583462925715426e-04
         - -1.7196459085958278e-03
         - 5.9403949461966738e-03
         - -2.6379765649878150e-03
         - 1.2248233928190411e-02
         - -3.7701194597324584e-03
         - -8.7894299116802354e-05
         - -1.6154237582381096e-03
         - 2.5707363939163584e-03
         - -5.6315953619082311e-04
         - -1.4299720436423973e-03
         - 2.2570177579102793e-03
         - 1.5945447266892548e-02
         - 1.1497118178513941e-03
         - 1.1515051100528920e-02
         - 1.5095494636097335e-02
         - 1.5571392735370174e-03
         - 3.5009070706926225e-04
         - 1.2994558721466850e-02
         - 2.1589564593076402e-03
         - 2.4719969934003390e-02
         - 5.3871038191255615e-03
         - 4.6334668131957878e-03
         - 2.0967901446832592e-02
         - -8.1796996246241357e-03
         - 1.3016820600394087e-03
         - 8.7939631203366939e-03
         - 9.2241509344922291e-05
         - 2.7460732876032788e-03
         - 7.3598124643394543e-03
         - -5.8813676491152741e-04
         - 8.4642139533603056e-03
         - 5.5917535669110195e-03
         - -6.0618701112261078e-03
         - 4.4074527782756289e-03
         - 3.2298151438487216e-03
         - 2.5926240385384229e-03
         - -4.0847422110429363e-03
         - 6.4773723536115423e-03
         - -1.0776122226716187e-04
         - -1.0400626684853101e-02
         - 9.2440240050510481e-03
         - -1.3935337810560722e-03
         - 1.0366965477823051e-03
         - 5.6584015160634094e-03
         - -3.3434804608208548e-03
         - 2.5027978262459113e-03
         - -4.9220242742992418e-03
         - -3.8940041976096474e-04
         - 6.6946408977175140e-03
         - -3.8500541796833467e-03
         - 2.5553951323488235e-03
         - 1.1068073559848025e-02
         - 5.0448700560363317e-03
         - 9.2710720941497904e-03
         - 9.7397716297776887e-04
         - -4.3737757454696737e-03
         - -2.8505081953381075e-03
         - 7.7983016518601272e-03
         - 4.1754253346844919e-03
         - 8.7053975509978102e-04
         - 1.2616185261977947e-03
         - -1.5952589769215177e-02
         - -6.1106551885246468e-03
         - 1.0557394040953971e-02
         - -7.7285309353168057e-03
         - -1.6669106616677483e-02
         - 5.0242017428711626e-04
         - -3.3168260761441387e-02
         - 6.5133938299403939e-04
         - -1.4896552206904012e-02
         - -3.4521782107342407e-02
         - -6.8413303676194553e-05
         - -9.6045941824364420e-03
         - -2.3174803047717955e-02
         - 5.5247464031709381e-03
         - 8.2716497286694952e-03
         - 3.9360251488110010e-03
         - 6.5948428550296053e-03
         - 7.7908021547651411e-03
         - -6.8264317021495607e-03
         - -1.3985487046235302e-03
         - 5.0836546656236811e-03
         - 1.7311190977725912e-03
         - 1.7866398402212248e-02
         - 4.0658472339776038e-03
         - -4.4165749123045055e-04
         - 1.4313968085796642e-02
         - 4.7946285126828159e-03
         - 5.8517922007800312e-03
         - -2.5153393167042419e-03
         - 3.4844597814901145e-03
         - 2.8174248730956187e-04
         - 5.4775743520871362e-03
         - 1.0124839105283143e-02
         - 6.3279702767138814e-03
         - -5.8070676571951472e-03
         - 7.9898415260778524e-03
         - 1.2872594077711288e-02
         - -3.5235490433313732e-03
         - 1.6449108495493449e-02
         - 1.0527847809353270e-02
         - 1.5106405122323106e-02
         - 2.1189136118860204e-02
         - -3.5765666312753586e-03
         - 2.7717460523167745e-03
         - 1.8047698729410505e-02
         - -1.7900404384345696e-03
         - 2.8824252407566578e-03
         - -3.5362179858113295e-04
         - -1.4765065912203152e-02
         - -6.9851118288829566e-03
         - 8.7217479128005176e-03
         - -6.1590915442474824e-03
         - -1.2165706060068475e-02
         - 1.4029809543659609e-03
         - 1.2252866153210270e-02
         - -5.6986333699619160e-03
         - 7.2071877510687943e-03
         - 3.8365207951442707e-03
         - -1.4192319926140521e-03
         - -1.6394837583791075e-03
         - 7.6295410827738590e-03
         - 2.6298998767974955e-04
         - -1.4361456455154197e-02
         - -1.5352473671822828e-03
         - -2.3446248940989262e-02
         - -2.0185592508129051e-02
         - 1.6841704803654389e-02
         - -5.6227390536282788e-03
         - -2.4697180316048273e-02
         - 1.9349883415298418e-03
         - -3.2258022340331240e-02
         - -1.6788205147579586e-03
         - -1.4534209728985269e-02
         - -2.8253647181165652e-02
         - 1.6688943646056970e-02
         - -8.3751877727411446e-03
         - -2.0729302424304354e-02
         - 4.1876953370690454e-03
         - -3.3810396990722524e-02
         - -1.0639619605140987e-02
         - -1.9125508331012720e-02
         - -3.0602556578610600e-02
         - 1.2013635834563739e-02
         - -1.1119341176295766e-02
         - -2.1132102014755995e-02
         - 7.6057228662152728e-03
         - -1.3922087403313537e-02
         - 3.9235302667766361e-03
         - 8.2284265142022073e-03
         - -8.0300923510989580e-03
         - 1.0666795281229068e-03
         - -5.1025280019197988e-03
         - -4.2325624507848917e-03
         - 8.4728042539818787e-04
         - -3.3802001961611129e-02
         - -1.9174391823740464e-03
         - -1.8045098685272164e-02
         - -3.0904700846877318e-02
         - 1.5428600011057673e-02
         - -7.4328736568679543e-04
         - -2.4122162663021265e-02
         - 3.0845549636438186e-03
         - -4.3997350504604349e-02
         - -5.4261228634938036e-03
         - -3.1776128202814703e-02
         - -4.4219293619968264e-02
         - 2.1168692087412695e-02
         - -1.6443599978958189e-02
         - -2.5625652149763305e-02
         - 1.9667889936103963e-03
         - -3.4393486899039101e-03
         - 9.6953683545980193e-04
         - 5.0355754106216053e-04
         - -1.9755005103590513e-03
         - 5.5882441911398063e-03
         - 1.8279796810022741e-03
         - -4.0361628046644803e-03
         - -3.3072285930714593e-03
         - 6.5439071765253142e-03
         - 7.2149778720556924e-03
         - 1.1622198098280238e-02
         - 1.4667106862483428e-02
         - -4.6932852282465416e-03
         - 6.6530708060837619e-03
         - 9.9727017181855410e-03
         - -3.1107198216037148e-03
         - -1.8419822689722139e-04
         - 6.0501017823823373e-03
         - 1.2799184704218963e-02
         - 2.4011000829345544e-04
         - -6.8173843121415445e-03
         - 2.2320096549677641e-03
         - 6.6317676024228367e-03
         - -4.6257888048592995e-03
         - -6.2652778699704689e-02
         - -1.1270642975496969e-02
         - -2.3268541715030490e-02
         - -4.3028444656902767e-02
         - 1.3042367244111987e-02
         - -1.3306857219748237e-02
         - -1.5143877332163859e-02
         - -2.9744139673493278e-03
         - -6.9147931967864187e-02
         - -1.4023263666166743e-02
         - -3.6186049923559928e-02
         - -5.5937372026841313e-02
         - 1.2449762060681656e-02
         - -1.5182296767773861e-02
         - -3.2810733958702647e-02
         - -1.5007084145277846e-03
         - -8.6252873993265783e-02
         - -8.3720804996114239e-03
         - -3.7059428251231950e-02
         - -6.9128271178975367e-02
         - 1.8017189160206868e-02
         - -1.9786511169232114e-02
         - -4.0663238305061265e-02
         - 6.6873094325469833e-03
         - -3.2138052208272053e-02
         - 8.9995678975302203e-04
         - -2.9795918897719807e-03
         - -1.8751804871390616e-02
         - -9.2353167714935916e-03
         - -7.3896158328011583e-03
         - -3.6072632447603698e-03
         - -4.8301269357807477e-03
         - -2.7127631292113642e-02
         - -5.4197464938600098e-03
         - -5.0827732152424035e-05
         - -1.3441224738719117e-02
         - 5.2259930323040743e-03
         - -4.9900026323283731e-03
         - -6.2898950877061455e-03
         - 1.3078259603105100e-03
         - 5.6676994793196794e-03
         - 2.3583357490662565e-03
         - 3.3012332668088261e-03
         - -1.0046575305944834e-03
         - 1.9743743343161864e-03
         - 3.1488649591490127e-03
         - 1.4136276506933505e-03
         - 2.8611801949233215e-03
         - -3.6428878436154138e-02
         - -7.6965496801522839e-03
         - -1.6773844135068702e-02
         - -2.2505117330056838e-02
         - 9.9972811772047615e-03
         - -4.0741365534950388e-03
         - -1.2856899888691646e-02
         - 8.7217102418947964e-03
         - -3.9714490890860168e-02
         - -9.7832804260312260e-03
         - -7.3208417047281836e-03
         - -3.0191011836518306e-02
         - 3.1858323898622388e-03
         - -8.6066129220955887e-03
         - -9.5294854028965745e-03
         - -8.1874377595200136e-04
         - -4.6200388150982340e-02
         - -6.7594510394939729e-03
         - -2.6406859988018869e-02
         - -3.8392278891978847e-02
         - 1.2403244387460642e-02
         - -4.1877220280952766e-03
         - -1.8832770239109928e-02
         - 7.4668289145646705e-03
         - -2.2454557297310985e-02
         - 4.8809503070196408e-03
         - -6.3152910987342549e-03
         - -1.6133839050516505e-02
         - 6.5504079583316027e-03
         - -9.5479511725601214e-03
         - -1.3823908491323419e-02
         - -7.2977777431346711e-04
         - -4.1004181183559696e-02
         - -5.8787002790235696e-04
         - -2.3570595366108185e-02
         - -2.5663567427890780e-02
         - 1.4567334516736481e-02
         - -7.3525631308964112e-03
         - -2.3366015430660358e-02
         - 4.7803555774283439e-03
         - -4.3871262835812545e-02
         - -5.9762524384497735e-03
         - -2.5300373705125324e-02
         - -4.1857477592271909e-02
         - 2.2039978633310423e-02
         - -7.3678307998507331e-03
         - -2.3780544190535512e-02
         - 8.0115590264384813e-03
         - -3.2532827963283349e-04
         - 4.3511426458325252e-03
         - -8.7044919647373510e-04
         - 5.0291859261160279e-03
         - -1.9896007537174147e-03
         - 1.7001278879963635e-04
         - -5.5908186012772728e-03
         - 2.6165860129123970e-03
         - -6.8182100281335154e-03
         - 3.7704270454593696e-03
         - 6.0704696765597780e-03
         - 3.5765815475737317e-03
         - -7.3325923710488537e-03
         - -5.9108901175142460e-03
         - 6.7483342283411176e-03
         - -3.1712870178214666e-03
         - -1.6512919669202313e-02
         - 5.5245171141352436e-04
         - -8.7151142715007745e-03
         - -7.6368168888272352e-03
         - 4.8117022495999338e-03
         - -5.9810674244397547e-03
         - -8.4514780771973563e-03
         - 1.1906880020359867e-03
         - -1.1588545693809073e-01
         - -1.9008906114954122e-02
         - -5.4261602461323923e-02
         - -9.5446169271835857e-02
         - 3.1137221678396027e-02
         - -2.0662109561102666e-02
         - -5.7781386325362026e-02
         - 4.7985858387779665e-03
         - -8.7285417896142942e-02
         - -7.0776645247036443e-03
         - -3.7733638816219113e-02
         - -6.8978405410247828e-02
         - 2.1000711754459431e-02
         - -1.4043322941801042e-02
         - -3.6277893235687378e-02
         - 4.9306419260265787e-03
         - -9.4563146972910558e-02
         - -3.4753429056811275e-03
         - -4.2889956206057511e-02
         - -6.3637033023673684e-02
         - 2.3190495108236397e-02
         - -1.3345660493771115e-02
         - -3.7707479369442770e-02
         - 4.3799146870507491e-03
         - -1.0312152016335996e-01
         - -4.2509376564449294e-03
         - -4.6642495681676284e-02
         - -7.4388428034279280e-02
         - 3.2650933790494045e-02
         - -1.4859205104551066e-02
         - -4.0465127631781513e-02
         - -1.7813942908821295e-03
         - -5.8979669809443060e-02
         - -4.5524620448111229e-03
         - -2.7328894613233966e-02
         - -5.3112418248421070e-02
         - 7.5911012789324408e-03
         - -1.6838725083031306e-02
         - -2.5654347244453712e-02
         - 8.3678560699055834e-04
         - 6.5279479201133905e-04
         - 2.6459036827716641e-03
         - 4.1236595693099560e-03
         - 7.3286109029501705e-03
         - -7.9725981804888973e-03
         - 7.3378402194135316e-03
         - 3.0563694366166814e-03
         - 9.5638115682255393e-04
         - 2.2792250350018826e-02
         - 2.8310378988556407e-03
         - 2.8283175243238593e-02
         - 2.1733568835064294e-02
         - -1.2463424252565762e-02
         - 7.8992117349782327e-04
         - 1.7974658695478769e-02
         - -1.3795281891085139e-03
         - 9.1542339646813204e-03
         - 1.2243940108161920e-02
         - 1.8539159935769468e-02
         - 1.4929357960827649e-02
         - -1.1982429611589943e-02
         - 3.3657326626875708e-03
         - 1.7176308991576184e-02
         - -3.6893819643860465e-03
         - -1.2429076531595204e-02
         - -6.9046551347931298e-03
         - -7.3417040768788975e-03
         - -4.6410687568866800e-03
         - 9.7343635156999855e-03
         - -6.3963246658048497e-03
         - -1.0434586181382091e-02
         - 5.8740674584046807e-03
         - -3.6181871443265262e-02
         - -4.9697360893269480e-04
         - -1.2892398150790728e-02
         - -2.1689183304496321e-02
         - 5.2136500702455648e-03
         - -2.1650747781125001e-03
         - -1.7418541805421028e-02
         - -1.9676105886848030e-03
         - -3.5186347925827220e-02
         - -9.4404469585795594e-03
         - -1.0639016230469915e-02
         - -2.1128631860578118e-02
         - 1.3432437754579852e-03
         - -5.2999137275971846e-03
         - -1.0444652386588527e-02
         - -5.3507699716280714e-03
         - -2.2997167727186851e-02
         - -7.1179231136236148e-03
         - -1.0519546616377865e-02
         - -1.8327215818330078e-02
         - 9.1805390603356650e-03
         - -4.9244731870851611e-03
         - -8.6879654002906884e-03
         - 5.4036809963165571e-03
         - -1.0069939744101855e-02
         - -4.5058328525909548e-03
         - -9.1141835676182090e-03
         - -1.3076862692104230e-02
         - 6.3442875547268639e-03
         - -2.3676963678434348e-03
         - -4.6934403989752349e-03
         - -1.2871737317851812e-04
         - -3.8480148742073249e-02
         - 9.4258591417015441e-04
         - -1.3989388912933876e-02
         - -3.1813585336680411e-02
         - 1.1746157993074205e-02
         - -8.0269239960634436e-03
         - -2.7366848516267566e-02
         - 8.2109084770714477e-03
         - 6.2327147562831552e-02
         - 1.4092622635847927e-02
         - 3.1820399991887315e-02
         - 5.6916979190177998e-02
         - -1.7375144963719232e-02
         - 1.2117942875682552e-02
         - 3.0955441356033609e-02
         - 3.1386703372133680e-03
         - 3.6492306783478111e-02
         - 1.0886337469764338e-02
         - 1.0357600218289201e-02
         - 2.3286919597988408e-02
         - -4.4677232378236217e-03
         - 3.6167802431488565e-03
         - 1.6249546015139647e-02
         - 2.6227801010087452e-04
         - -6.7258850137179763e-02
         - 6.7881385441575810e-04
         - -2.7372557802250747e-02
         - -5.7856331690637017e-02
         - 1.9283214550171089e-02
         - -1.0821430173589486e-02
         - -3.2950955311989168e-02
         - 7.3529437340589454e-03
         - -1.2300300533241344e-01
         - -1.8306447603078774e-02
         - -6.1654664142390549e-02
         - -9.4629419446384269e-02
         - 4.3777408563016436e-02
         - -2.1240345177827746e-02
         - -6.2406705506421280e-02
         - 1.0394494762510399e-03
         - -6.5849207467056581e-02
         - -9.3199959465206060e-03
         - -2.2971058056982106e-02
         - -5.5360334303494886e-02
         - 7.4521811673519617e-03
         - -3.8133667027018610e-03
         - -2.0877003748769236e-02
         - -5.7545934553839394e-03
         - -5.8834096413811064e-02
         - -6.7101836446912099e-03
         - -3.2372068422167867e-02
         - -5.2092646485253705e-02
         - 9.5505168077135855e-03
         - -8.5462352062315224e-03
         - -2.8963400319143653e-02
         - -1.5911404402768491e-03
         - -7.1019488684787579e-02
         - -9.0600830920023606e-03
         - -3.1870094063395492e-02
         - -5.5237303046318083e-02
         - 2.4415482546218389e-02
         - -1.3708832225060502e-02
         - -3.1596578085625757e-02
         - 1.8005423158168846e-03
         - -4.0369560468745201e-02
         - 1.5909903753526765e-03
         - -1.6860472485481070e-02
         - -3.0217326814714153e-02
         - 1.2894398025436678e-02
         - -1.3961434265822768e-02
         - -1.7771452606477559e-02
         - -4.2109138333664810e-03
         - -4.4635107080878998e-02
         - -2.1644284037248421e-03
         - -1.3307421900635122e-02
         - -3.3140790243542606e-02
         - 9.9376848587946071e-03
         - -1.1042482525033375e-02
         - -1.2770563673075835e-02
         - 5.8126013095088245e-03
         - 1.5673902351661065e-02
         - 4.9001562994728251e-03
         - 2.4798620835868319e-02
         - 3.3168238422156313e-02
         - -1.7356844447194660e-02
         - 2.6018471818184279e-03
         - 2.6660622164595794e-02
         - -3.1660368226474559e-03
         - 1.4334890839397119e-02
         - 3.8772142783912746e-04
         - 1.4235442919071230e-02
         - 1.3880889278333620e-02
         - -1.0200770754721498e-02
         - -1.2695011711006232e-03
         - 7.5153430189202714e-03
         - 5.4928220241999420e-03
         - -2.6720099225228958e-02
         - -1.7321178746823396e-03
         - -2.7895878184411214e-02
         - -3.1779901916911074e-02
         - 1.3457463322819989e-02
         - -1.7215463903648585e-03
         - -2.1509462552104841e-02
         - -6.0801910983698981e-05
         - 7.5578347337147142e-03
         - -5.6989576128054385e-03
         - 6.3726350165574479e-03
         - 1.3340068092835470e-02
         - -6.8821017869011474e-03
         - 2.9955620380073930e-03
         - 1.3294006393852347e-02
         - 2.5338056961315769e-03
         - 2.7561921836244704e-03
         - -6.4941510222644898e-03
         - -1.4574384230491304e-02
         - -4.1815189096537850e-03
         - 1.1945771537724911e-02
         - -2.7335935118597749e-03
         - -9.0406421886155917e-03
         - 4.4163817632862116e-03
         - -3.1620974709658215e-03
         - -3.4505402360247169e-03
         - -1.9710101944606866e-02
         - -1.2160055477204777e-02
         - 5.6153969867901096e-03
         - 2.6183021724995878e-03
         - -1.6028188273970099e-02
         - 4.0175904610838409e-03
         - -3.6996914820398713e-03
         - 1.0539893560482546e-03
         - -1.5174809509558726e-02
         - -7.1047283627203193e-03
         - 6.4227749651313993e-03
         - -9.8737601889247045e-03
         - -1.1622184162969139e-02
         - 6.0188000189842212e-04
         - 3.0101832489943414e-02
         - -2.0623218765201375e-03
         - 7.5012885268781349e-03
         - 2.1617185396712833e-02
         - -1.3287650175902272e-02
         - 1.1511607424625377e-02
         - 1.7972810645894212e-02
         - 7.1674811407107068e-03
         - 5.8312403809855008e-02
         - 7.0177669303529925e-03
         - 2.6323678757401214e-02
         - 4.8465510214938244e-02
         - -6.2420649557498103e-03
         - 6.0593798893431609e-03
         - 2.0460027141954502e-02
         - -3.0307189987275581e-03
         - 4.2731415167501181e-02
         - 1.1419089395875054e-02
         - 2.4179770014875531e-02
         - 2.3659166741187291e-02
         - -3.1292439232918187e-03
         - 5.6514957948182714e-03
         - 1.9955304329201524e-02
         - -2.3083829991752277e-03
         - -8.3578182331255815e-02
         - -9.3750351210604935e-03
         - -3.6580756061805754e-02
         - -5.5537768672336091e-02
         - 1.5129911393653449e-02
         - -2.0975138402628404e-02
         - -3.9145258804305944e-02
         - -7.4102640137227319e-04
         - -9.2603702822826608e-02
         - -3.8349222818627542e-03
         - -4.1159395605107792e-02
         - -7.0759569262398320e-02
         - 2.5169426130692577e-02
         - -1.6236157774534330e-02
         - -4.8403174560954512e-02
         - 9.4603148197779227e-04
         - -9.0015511524429229e-02
         - -7.7183461007137074e-03
         - -4.7284611564844356e-02
         - -8.0617289978725165e-02
         - 2.1483846446638460e-02
         - -2.2053594906459563e-02
         - -4.3269175690403727e-02
         - 1.8266300347999870e-03
         - -6.3359398522844460e-02
         - -6.7789214390586092e-03
         - -1.7738382573464523e-02
         - -4.6258173710812402e-02
         - 5.0727255130958177e-03
         - -7.9043629756608575e-03
         - -2.5710844373639161e-02
         - -6.9539245677339894e-03
         - -3.0838863442386330e-02
         - -2.0787371108365654e-03
         - -1.5048486332679580e-02
         - -2.7603844606275459e-02
         - 8.8478898536777496e-04
         - -6.8859013858311212e-03
         - -9.6806676033823931e-03
         - -6.2247224457780571e-03
         - -5.0914795982032718e-02
         - -4.8471740628824684e-03
         - -1.8234962978794018e-02
         - -4.6422876187877042e-02
         - 1.1719481317705643e-02
         - -6.3347227811645628e-03
         - -2.1812311223408473e-02
         - 4.3924097025706661e-04
         - -1.4619700850154144e-02
         - -1.8943473315726608e-03
         - 4.7780782976329287e-04
         - -2.8907981105461768e-03
         - -1.1817411281858990e-03
         - -1.9526661902984827e-03
         - 3.3397933091213255e-03
         - -1.1146592975612931e-03
         - -1.9160437815453041e-02
         - -3.6145018331188673e-03
         - -7.5839538296033548e-03
         - -1.9752585292368067e-02
         - -1.3337007315817526e-03
         - 8.3346805592515629e-04
         - -1.1780713312307196e-02
         - -9.9911273926707824e-04
         - -4.2984815515028744e-02
         - -2.4744941071892959e-03
         - -2.7430419757283289e-02
         - -4.6066028667745944e-02
         - 2.2607809349343436e-02
         - -5.5417301991725690e-03
         - -2.5430150225205762e-02
         - 5.3385165718465265e-03
         - -1.2400304168719159e-02
         - 1.7031620339449125e-03
         - 5.8642852401032189e-03
         - -4.1975887907195605e-03
         - -1.3362227188139901e-03
         - -3.1292825211481461e-03
         - -1.0036275311813157e-03
         - 2.9574137042170331e-03
         - -1.0433200208986707e-02
         - 3.7809030576896911e-03
         - -4.7425553597531906e-03
         - -8.2221528673929734e-03
         - 1.0249144908020091e-02
         - -5.6858570452750310e-04
         - -1.0466341127331316e-02
         - 4.3483364081317206e-03
         - -4.4648844094753795e-03
         - -7.8310947464392284e-03
         - -1.7029057795385417e-02
         - -1.3129767642130821e-02
         - 2.1735330328130661e-03
         - 5.0969159781221504e-04
         - -8.2940781214097415e-03
         - -1.5068375331835221e-03
         - 6.6529476585689860e-03
         - -7.4793921008909489e-03
         - 2.6596734942038723e-03
         - -6.6741833582372248e-03
         - 1.0864938696427634e-02
         - -1.1969795343269676e-03
         - -7.1008833278742509e-03
         - 7.8555146331629935e-03
         - 7.3339340239771534e-04
         - -2.0996994784233882e-03
         - -1.4372931021144831e-02
         - -3.6148972931274313e-03
         - 9.9238972129701113e-03
         - 1.9751139703608330e-03
         - -7.2101513257620481e-03
         - -2.3734867199742167e-03
         - -4.0729562395357402e-03
         - 2.2580698764271341e-03
         - -1.4418199994468070e-02
         - -1.5049686803229942e-02
         - 1.1721959014291211e-02
         - -3.2002596813014068e-03
         - -1.1322673576814489e-02
         - 3.1149858910377920e-03
         - 4.5987041975854903e-02
         - 3.7169796680399901e-03
         - 1.7304294701858090e-02
         - 3.1622156927589677e-02
         - -2.0934012366777654e-03
         - 4.4216830327747092e-03
         - 1.4264688381019656e-02
         - -2.0456469787561195e-03
         - 3.3315755460169155e-02
         - -1.4200995132394793e-03
         - -3.3979825329247303e-03
         - 2.0124464629990221e-02
         - -9.4655117876601893e-04
         - 9.1897539972696490e-03
         - 7.1994907902887201e-03
         - -1.0109993848973370e-04
         - -3.2959654110664031e-02
         - 5.3511473757038967e-05
         - -8.5967011433471813e-03
         - -2.1796532964315832e-02
         - 2.6483064210061345e-03
         - -1.0160807382481265e-02
         - -1.6185182362593521e-02
         - 1.4521095580811957e-03
         - -5.6258381414925951e-02
         - 2.8120879005369631e-04
         - -3.2353206028615536e-02
         - -4.1469944132911947e-02
         - 9.6693278193948108e-03
         - -8.2358634354637878e-03
         - -2.8731414573938435e-02
         - -5.2332145975680150e-03
         - -4.9328746183896793e-02
         - -6.8170018603886714e-03
         - -1.2747279452702844e-02
         - -3.2910879174410719e-02
         - 1.4252821121043405e-02
         - -3.7597958724190045e-03
         - -1.4396647297446521e-02
         - -3.9021660630667683e-04
         - -2.3646590021221461e-02
         - -8.6147417616939809e-03
         - -8.6094830973358957e-03
         - -1.9593191394467819e-02
         - -4.3099021182118006e-03
         - -1.0680774291703464e-03
         - -1.2076862527076052e-02
         - -2.9039254620542251e-03
         - 2.9273502489407903e-02
         - 6.0682774809267736e-03
         - 1.6603188289577547e-02
         - 2.1516010938058060e-02
         - -3.5561773010607768e-03
         - 8.7351922001948738e-03
         - 1.1290293762408079e-02
         - -4.0585823479667351e-03
         - 2.6604418633913527e-02
         - -5.0870130349347951e-03
         - 6.0377665566673988e-03
         - 1.8020173022958483e-02
         - -1.7741884095215481e-03
         - -3.1942018491888566e-03
         - 4.1630848788181563e-03
         - 7.7384868438055950e-03
         - 2.7274869434545261e-02
         - -1.8677714698801088e-03
         - -2.4490407282968438e-03
         - 9.1965752310958753e-03
         - 1.4172938269174889e-03
         - -5.1718134597853512e-04
         - 3.3048450135012150e-04
         - 3.6913624430304584e-03
         - 2.1072704549511795e-02
         - 9.6849159930927900e-04
         - 1.0603258821457049e-02
         - 1.8945747877358497e-02
         - -7.5531600697207549e-03
         - 3.9059946782635632e-03
         - 1.0376419001973848e-02
         - -4.2979236782744257e-03
         - 1.8513283078270232e-02
         - 8.2394674997200417e-03
         - 1.8639050979965575e-02
         - 1.4003704262834201e-02
         - -7.7541732495815478e-03
         - -6.4832954844494593e-04
         - 7.6637749753835568e-03
         - 1.3329621308490150e-03
         - 2.1945689633694712e-02
         - 2.0490374184868451e-03
         - 2.0339584772146632e-02
         - 1.4492547290020105e-02
         - -1.1891551368344251e-02
         - 3.7073542961736797e-03
         - 1.5022048815486003e-02
         - 1.0602768106876077e-03
         - -1.5797894536874340e-03
         - 7.3714215881005483e-04
         - -1.6686664135501312e-02
         - -3.9247587933421051e-03
         - 1.1378497639996753e-02
         - -6.7225770900452538e-03
         - -1.7444096089356879e-02
         - 1.8221674565835563e-03
         - 1.8860432554039307e-02
         - 9.9786963758460379e-04
         - -9.0291548032189718e-04
         - 8.8487968083096110e-03
         - -7.7551375950352325e-04
         - -1.3684754067003341e-03
         - -1.3982821923123939e-03
         - -8.6450901212306607e-04
         - 2.2956164894028099e-02
         - 7.3794570232475938e-03
         - 1.9026639835493665e-02
         - 1.0771452366939516e-02
         - -3.3678501402741702e-03
         - 5.4906185602802115e-05
         - 1.1097067437812717e-02
         - -1.8515905840166065e-03
         - -5.0117932255134010e-03
         - 4.7230893943264246e-03
         - -1.1400968611032897e-02
         - 2.6257957326651792e-03
         - 2.7311076709435347e-03
         - -4.1942735809905153e-03
         - -1.5301106585501392e-03
         - 4.0271006489483599e-03
         - 5.4199508542966589e-02
         - -7.3507879493174295e-04
         - 2.9533659607733357e-02
         - 4.6026452628380010e-02
         - -1.3109220963000429e-02
         - 8.9348323104639239e-03
         - 2.1717880004589074e-02
         - 4.1551766644149493e-03
         - 4.2370790871052354e-02
         - 1.1345437783083746e-03
         - 1.1086766707454739e-02
         - 2.8321192388171174e-02
         - -1.5037954510136050e-03
         - 1.2392496521963804e-03
         - 1.4233324511438864e-02
         - 2.4559365930646549e-04
         - 7.2333485539678014e-02
         - 9.6007328121511474e-03
         - 3.9559033221676601e-02
         - 5.4258254794794437e-02
         - -1.4008701214866954e-02
         - 1.2127131637311111e-02
         - 2.7751799514487419e-02
         - -1.5492784509176533e-03
         - 2.4027932965573297e-02
         - -8.1743754996525132e-03
         - 5.0496550763070068e-03
         - 3.5893440304785732e-03
         - 3.4176861029665264e-03
         - 5.9521150023233750e-03
         - 2.0887645856124742e-03
         - -2.9498068971519765e-03
         - -1.4567833276159637e-02
         - -7.7048132022021509e-04
         - -1.6496310607842866e-02
         - -9.0348041175551275e-03
         - -1.5598739956890798e-03
         - -3.2919831890843654e-03
         - -1.2675484014153044e-02
         - -2.6648655317853339e-03
         - -2.8636609385855827e-02
         - -4.3878004771698582e-03
         - -1.9091825706180288e-02
         - -2.6880889566579479e-02
         - 3.9987572324120275e-03
         - -1.1664863774585520e-02
         - -1.8178645105517109e-02
         - -4.2957367641284520e-03
         - 1.3988017505423604e-02
         - -1.0319229722190013e-03
         - 1.1560028390757640e-02
         - 1.8821876033100697e-02
         - -8.4463732681449716e-03
         - 4.6731736673789560e-03
         - 1.2893768189766133e-02
         - 7.8179736497326709e-04
         - 1.2809389864376058e-02
         - -2.1658229194080878e-03
         - -6.3354698113701185e-03
         - -1.4693586298852718e-03
         - 7.9774222886923232e-03
         - -6.6380727375704024e-04
         - -3.1325473691605674e-03
         - 3.8209012817045211e-03
         - 1.6439866741299488e-03
         - -2.6689874348328241e-03
         - -1.7944482856959924e-02
         - -7.0752217737904237e-03
         - 1.3409217440351782e-02
         - -2.1246146655484115e-03
         - -1.2754386856608731e-02
         - 4.6621034371572556e-03
         - 1.9089683957542434e-02
         - 6.5867238791036363e-03
         - 6.5287941844124481e-03
         - 1.5452855552666287e-02
         - -1.0205260013466070e-03
         - 5.6296818308280419e-03
         - 1.4746532434881734e-02
         - -9.7151903551666498e-03
         - 4.1962780381991933e-03
         - 5.3820517051535893e-04
         - 3.1534952512916031e-03
         - 7.4649994641465510e-03
         - -6.1477720865378595e-03
         - -2.7627763834438671e-03
         - 4.6499264860378527e-03
         - -1.6766243198569611e-04
         - 3.2390638737334866e-02
         - 3.2416527485382199e-05
         - 1.9584521515402450e-02
         - 2.8070415462493229e-02
         - -1.2646728440332246e-02
         - 1.0207977689847393e-02
         - 2.5063532450404744e-02
         - -5.9549921885287630e-03
         - 9.9510346841270286e-03
         - -6.0779354144379696e-03
         - -1.2078999823078260e-02
         - 2.5154171466015411e-03
         - 1.3405928909202178e-02
         - -7.7796054955398359e-03
         - -1.0006720823323703e-02
         - 9.7190172957120468e-03
         - 2.2233422640256670e-02
         - 3.1654014413625346e-03
         - 4.7575711021807070e-03
         - 1.7451518516692605e-02
         - -3.6341818865052605e-03
         - 5.5991854043518380e-03
         - 4.7051642561393115e-03
         - -3.2027255146775688e-03
         - -7.4643620915324045e-03
         - -8.3941060836140152e-03
         - -9.6699571975127959e-03
         - -9.0048806254580879e-03
         - 8.5158746809633323e-03
         - 3.7876920400845308e-03
         - -2.5869703723258735e-04
         - -1.5524248537285281e-03
         - 8.2784507275017319e-05
         - 2.5163801547182000e-04
         - 1.4685020382498204e-03
         - -7.9953141409310480e-03
         - -6.3696497814547826e-03
         - 2.7572838685974753e-03
         - -1.5083594909002327e-03
         - 7.2802407390382814e-03
         - -1.1349684442753524e-02
         - -4.0572720639447798e-03
         - -2.2946270426280578e-03
         - -1.4296330560787076e-02
         - 9.7003427093037241e-03
         - -5.0037851147509606e-03
         - -2.9895024898586814e-04
         - 6.8354426141960705e-03
         - 1.2493006313808975e-02
         - -4.6964673243009162e-03
         - 2.8834075340604093e-03
         - -9.4802925851235451e-04
         - -1.1766784733186063e-03
         - 1.9166168590691733e-03
         - 6.7216862464171785e-03
         - 5.2615552982156839e-04
         - 6.2811227526217372e-02
         - -1.3204870563834595e-03
         - 3.8668215958546831e-02
         - 4.8620308709137749e-02
         - -1.9692034596989861e-02
         - 1.6645142272443899e-02
         - 2.7800571291079535e-02
         - -5.6218024995577601e-03
         - 6.4939730070694299e-02
         - 1.2570259195036201e-02
         - 3.9346753664851082e-02
         - 5.6129795191540856e-02
         - -1.4276175353751887e-02
         - 1.1370924003857634e-02
         - 3.2048510984775326e-02
         - -8.5542465722817391e-03
         - 4.3580753135168598e-02
         - 2.6183653291289278e-03
         - 1.3602078775404302e-02
         - 2.1678842386019800e-02
         - 1.2396315462398534e-03
         - 8.5162353783477980e-03
         - 1.1679766647958436e-02
         - 3.1762582264605837e-03
         - -1.3034549128767605e-02
         - -6.3885679925082791e-03
         - -1.3215848465823302e-02
         - -2.0902178291383827e-02
         - 1.1243423478565568e-02
         - -1.2441874192295664e-02
         - -1.7676055741572685e-02
         - 7.4417695462842062e-04
         - -5.1245893303491948e-02
         - -5.7511092522491399e-03
         - -2.4479458330097102e-02
         - -3.9337679115204069e-02
         - 1.3541050064977534e-02
         - -2.6352732951775357e-03
         - -2.5045266117517954e-02
         - -1.8499715945820747e-03
         - -2.3760772524259222e-02
         - 4.2316809496856553e-04
         - -8.9312635691906946e-03
         - -1.4477546148917065e-02
         - 4.4946094821214427e-03
         - -1.4469599579888283e-04
         - -1.3345463400339874e-02
         - 3.4550722976202770e-03
         - 1.7572101917494993e-02
         - -4.4672318369476842e-03
         - 8.2996281245170458e-03
         - 1.7533701920525634e-02
         - 1.9627792253510808e-04
         - 4.0395760271908446e-03
         - 6.3184891687358118e-03
         - 4.6536317512081721e-03
         - 4.4089565595397159e-02
         - -2.6054541583255385e-03
         - 1.4805722543517844e-02
         - 1.7631578153750858e-02
         - -1.4079882607385076e-03
         - 8.8981678583997994e-03
         - 1.2390094362670098e-02
         - -2.8540514269717176e-04
         - 4.6955711082737342e-02
         - 4.3011211962017421e-03
         - 1.5062380084871875e-02
         - 3.4978325784177672e-02
         - 1.0616927595466800e-03
         - 7.3467262413758035e-03
         - 1.3233070310060879e-02
         - 7.0071153814800936e-04
         - 3.0450136962600703e-02
         - 1.6228822221724269e-03
         - -1.8310018992007768e-03
         - 1.5043898460068005e-02
         - 6.1999553619636900e-03
         - 5.6574458925810938e-03
         - 1.6569386590333127e-03
         - -3.1134165795681362e-04
         - 5.2492266824652377e-02
         - 6.7083986728849482e-03
         - 1.4158550465962620e-02
         - 4.4451658549005207e-02
         - -2.2339395186005938e-03
         - 8.8319613236785936e-03
         - 1.5440627519213702e-02
         - 7.0688809152079639e-04
         - 5.2711663712248162e-02
         - -8.8176931368272760e-04
         - 1.6417917208012167e-02
         - 2.9911597080264175e-02
         - -1.0288553983944614e-02
         - 5.3284975927626931e-04
         - 2.2661506034261727e-02
         - -4.0664757642171184e-03
         - 3.1199754573937120e-03
         - -4.9387395869489540e-03
         - 7.1530080827797030e-03
         - -1.5839483389101341e-03
         - 3.9311563583193758e-03
         - -6.3623402602236432e-03
         - 2.8287419419905243e-03
         - 2.7469013756350898e-03
         - -1.0784570391395425e-02
         - 5.8669859370088871e-03
         - -8.0650937882548977e-03
         - 1.1548479368132839e-03
         - 2.0388809382311515e-03
         - -2.9131455502685089e-03
         - -6.3468197339531839e-03
         - -5.2551799140354597e-03
         - 6.3000247268237483e-03
         - 3.2309882998736790e-03
         - -4.2484054080291749e-03
         - 2.6924560462695201e-03
         - 5.1483001587555935e-05
         - 4.7733731745680649e-03
         - 1.0163431553110568e-03
         - 2.3036492105338439e-03
         - 2.9056861399825838e-04
         - 5.9078991723801157e-03
         - -9.2189414900201183e-04
         - 1.6569313752495443e-03
         - 6.1179647635682044e-03
         - 4.5301698253914589e-03
         - 2.1460614255002541e-04
         - -1.7781012958065011e-03
         - 3.3261700574071947e-03
         - -5.5285395865020343e-03
         - -7.8481660283960687e-03
         - -3.5020083462890621e-03
         - 3.4822608566721804e-04
         - 3.2375296635701232e-03
         - -7.8435071148889937e-03
         - -3.7982837308641578e-03
         - 3.6176444308916116e-04
         - 2.2797940766289813e-03
         - 3.4750679912977965e-03
         - -6.3904087527023885e-03
         - -7.4572854894696342e-03
         - -4.3590724480468126e-03
         - 6.7678097389260216e-03
         - -5.8685660572320936e-03
         - -3.9064545288394533e-03
         - -1.4338246408886121e-03
         - -5.4860728225757773e-03
         - -2.7425886354584092e-03
         - 4.0122481156671655e-03
         - -5.2106504976251267e-03
         - -1.1173211630902905e-02
         - -1.1961445992472734e-03
         - -1.7584515010102136e-03
         - -6.0519746590006265e-03
         - -3.4956291167177822e-03
         - -1.7671063173064752e-03
         - -4.9596044151267510e-03
         - -3.1540379505268102e-03
         - 7.3825777466082483e-04
         - -3.2984932992901317e-03
         - -5.7338454514202095e-02
         - -1.3820242199745146e-02
         - -3.0179205992773180e-02
         - -4.6752326536981359e-02
         - 1.6128097641818221e-02
         - -9.3690591082219200e-03
         - -3.4522958601153758e-02
         - 1.2517018386198996e-02
         - -5.1080987927653872e-02
         - -2.4079897253909445e-03
         - -3.0939201126078411e-02
         - -3.5265030605111977e-02
         - 8.8441034673113657e-03
         - -7.1451899598400995e-03
         - -2.0168563376229933e-02
         - 6.3025756916387232e-03
         - -6.2498552826329060e-02
         - -5.1315773203759220e-03
         - -2.6040494093357961e-02
         - -4.4013892566474803e-02
         - 8.0536034162256626e-04
         - -6.8475678715565758e-03
         - -2.4805306318206873e-02
         - 8.9867683822047132e-03
         - -3.8204991840956404e-03
         - -2.5165180194441660e-03
         - -9.6373054483730840e-03
         - -6.8526140364434766e-03
         - 9.3029341388966534e-03
         - -9.6665182102843410e-03
         - -8.4680836609760998e-03
         - 4.4356260475267957e-03
         - 1.8964993679149094e-02
         - 5.9199817070541014e-03
         - -1.0729901278704356e-03
         - 1.5227600941088841e-02
         - 4.0832581419575379e-03
         - 2.1238182604333762e-03
         - 4.9990851029313391e-03
         - 1.3693101464915031e-03
         - 5.8815609697346213e-02
         - 8.5829405234450779e-03
         - 1.6479709220774366e-02
         - 4.1674084746643622e-02
         - -4.5529751917425202e-03
         - 6.6851713366541873e-03
         - 1.5595760729743290e-02
         - -1.0413876369328009e-03
         - 8.0216420993066542e-02
         - 6.5019198733383904e-03
         - 3.5926452235622276e-02
         - 6.1101667393672961e-02
         - -1.5703268489319348e-02
         - 1.3632760300216104e-02
         - 2.9644169104245607e-02
         - -4.4509971836980888e-03
         - 5.6924270045141202e-02
         - 1.0654524257880148e-02
         - 2.2255206917116195e-02
         - 3.4562150723770974e-02
         - -1.1216029543079447e-02
         - 4.1259060172776562e-03
         - 2.5593965230357171e-02
         - 1.0711611931121586e-03
         - -6.2859238937069779e-03
         - 5.2388024655692297e-03
         - -1.1579211648266431e-03
         - 5.4002496220213825e-03
         - -6.0746480767707696e-04
         - 5.0118268539821043e-03
         - -1.3411990043940831e-03
         - -5.6724234864105388e-03
         - -1.1850657631729346e-02
         - 3.9709043577903086e-03
         - -3.1715531120428425e-04
         - 2.1429088664087748e-03
         - 1.6506943787082623e-03
         - 1.9511589811195072e-03
         - -2.8453015403987641e-03
         - -6.2425706280825461e-04
         - 4.7083569426721724e-03
         - -7.9022347621249579e-03
         - -1.3897433117650818e-03
         - -9.4307428784312884e-03
         - 2.0422175458589113e-03
         - -4.5371241551963532e-03
         - -1.9466470628250758e-03
         - -4.6656681035069378e-03
         - 2.6700545127772721e-05
         - 5.1054305563467406e-03
         - -6.9037469615004640e-03
         - 8.7117082946867880e-05
         - -5.2805409531913698e-03
         - 2.3746348708989651e-04
         - -9.6829110468583425e-03
         - 5.0218822395066282e-03
         - -9.1392771698911492e-03
         - -2.1440488939114088e-03
         - -4.2332701934714341e-03
         - -6.6897468425615916e-03
         - -7.4660892422975886e-04
         - -6.7434908485615444e-03
         - -8.2782283378749432e-04
         - -2.7308815951359969e-05
         - 2.2192385175918458e-03
         - -3.2430293172815614e-03
         - 2.5296670336635973e-03
         - -3.8715026115252976e-03
         - 5.3286398197151339e-03
         - -5.2223529682779088e-03
         - -4.4644454363945473e-03
         - -5.8689367251706596e-03
         - 3.6413576060942078e-03
         - 4.2119689205285561e-03
         - -4.3459217895290593e-03
         - 6.4596884537723434e-03
         - 4.4013538269532153e-03
         - 3.5083678439332641e-03
         - -3.0746670422969039e-03
         - 5.4434808982201655e-03
         - 9.3343045961593978e-03
         - 6.8122216701864292e-03
         - -5.4260568470848036e-03
         - 6.8650315595040617e-03
         - 1.9057148795752626e-03
         - 3.9429593698864446e-03
         - 7.5898153543352111e-03
         - -7.8059121052121878e-03
         - -1.9495179757440459e-02
         - -3.1781705422586188e-03
         - -1.8269432025783482e-02
         - -1.7554059615538260e-02
         - 2.1957605816566245e-03
         - 1.7616101191168024e-03
         - -8.8663112669029234e-03
         - -4.4270311377476003e-03
         - -4.7196467086054766e-02
         - -7.6682296560825272e-03
         - -1.7640641725906583e-02
         - -2.5851310071251219e-02
         - -2.5610616161588031e-03
         - -8.8949159942813254e-03
         - -8.3110636889293897e-03
         - 3.8658338763274689e-03
         - -3.1617363140895444e-02
         - -7.8965377452014113e-03
         - -3.1913999594034678e-03
         - -2.8685670618349819e-02
         - -5.2315516918252430e-03
         - -1.7511733353446370e-03
         - -2.8279379970934837e-03
         - -2.0657479488480814e-03
         - -7.8104377131097778e-03
         - -2.2600040981284454e-03
         - -1.4350078206228196e-03
         - -2.9490558964436072e-03
         - 3.0097432927485655e-03
         - 4.4351851072318106e-03
         - -1.7493904968315080e-03
         - -5.1543019728564265e-03
         - 1.1084730568769305e-02
         - 9.2482580587968845e-03
         - -1.9096420255018994e-03
         - 5.0228236705334665e-03
         - -6.3370565590300328e-04
         - -7.0369673211706186e-03
         - -4.9904169812010806e-03
         - -1.6283147323724830e-04
         - 2.2930524162621438e-02
         - -7.9316853408097996e-03
         - 2.5743915737637783e-03
         - 1.2177894543049045e-02
         - 1.9307056166733069e-04
         - 4.2837209152239413e-03
         - 9.8188056532597084e-03
         - -1.1458412161328424e-03
         - 5.6131581151103026e-02
         - 9.0680245910095842e-03
         - 1.6285335279445933e-02
         - 4.2872932122686891e-02
         - -5.9270504357816127e-03
         - 1.0748254778779295e-02
         - 1.5058715132572925e-02
         - -2.4044455749404679e-03
         - 2.8174752974587845e-02
         - -3.9307116240650374e-05
         - 7.2601223299269433e-03
         - 2.0814872605217857e-02
         - -7.4420387975835127e-04
         - 2.5922278687961408e-03
         - 1.0900020609324499e-04
         - -4.0360244772570967e-03
         - 1.7327371786380725e-03
         - 1.5306942167803603e-04
         - 4.8616007777645159e-04
         - 2.7459636091540146e-04
         - -5.0647197960257779e-03
         - 5.3824819890445465e-03
         - 5.7623142501155361e-03
         - -3.0963498014504598e-03
         - 6.0754851958649521e-03
         - 6.4092871104852022e-03
         - -3.2760705207342091e-03
         - 9.3983307069817328e-04
         - -7.7626758972090956e-04
         - 2.9927073815069565e-03
         - -2.1069748311640787e-03
         - -1.7161259521399316e-03
         - 5.2356185989678233e-03
         - 5.2656154050162813e-03
         - 6.9576973653512298e-03
         - 1.3120386816414788e-02
         - -2.2046965500796527e-03
         - 4.3540725488062346e-04
         - 4.4043991752605654e-03
         - -3.5607896001851806e-03
         - 6.2490184207185872e-04
         - -4.8483188577086913e-03
         - 7.1663911025392365e-04
         - 9.4447071287027319e-05
         - -1.7944779517676012e-03
         - 5.0731909081624333e-03
         - 2.9219998430097074e-03
         - 1.1225045665675399e-03
         - 4.9480697346513027e-03
         - -5.2000078744366442e-03
         - -4.1457611416024489e-03
         - 1.4957926845477254e-04
         - 8.2674335629012666e-03
         - -4.4569510328632406e-03
         - -6.5152682295909073e-03
         - 5.8895662799440199e-03
         - 3.2336294938892052e-03
         - -3.8873345770836570e-03
         - -8.4077153850756008e-04
         - 7.5444384194099665e-03
         - -2.6687334203679487e-03
         - 8.4298109318315731e-03
         - 1.0733478537456038e-03
         - -3.1605890109903663e-03
         - 4.0872739455929155e-04
         - 5.5655715890230405e-03
         - 6.1389534957324691e-04
         - -2.3112883358220124e-03
         - 2.1238223718027485e-04
         - -1.7953212702481426e-03
         - -5.7706236658965990e-03
         - -3.3572350051351237e-04
         - 1.6422041303291675e-02
         - 3.0834496047037400e-03
         - 6.2936222880794505e-03
         - 1.4062302342064969e-02
         - -5.6593335996899452e-03
         - 2.7274408291751611e-03
         - 1.2161305343892854e-02
         - 4.4872586473107771e-03
         - 2.8000826866742101e-02
         - -8.5219973610050194e-04
         - 3.0409886590642771e-02
         - 3.1941551985606526e-02
         - -1.5305081761654000e-02
         - 1.1706945782692055e-02
         - 1.8826691417386156e-02
         - 2.2860051722633687e-03
         - -1.3714201134650255e-02
         - -5.4284206541599985e-03
         - 5.1878622197922050e-03
         - 3.7902138602807856e-03
         - -3.5530436413624784e-03
         - 1.4147672050098435e-03
         - 4.2126979099547232e-03
         - -3.2723861490708481e-03
         - -3.8597811303079765e-02
         - 4.2187379655022140e-03
         - -1.3814834889831819e-02
         - -3.3938749552563735e-02
         - 4.9427961063993608e-03
         - -9.2888188957434767e-03
         - -9.5656653186501576e-03
         - -6.7623576223205096e-05
         - -2.6586052353950090e-02
         - -4.8644112960522156e-03
         - -9.1716898312318770e-03
         - -2.3074794456335233e-02
         - 1.6481867072888317e-03
         - -2.0123684126803153e-03
         - -1.4448346049452797e-02
         - -6.4962844729197708e-03
         - 5.0063763887695130e-02
         - -3.7779646992375861e-04
         - 2.8352854569623834e-02
         - 3.3079778942787769e-02
         - -9.9086125729948987e-03
         - 1.4521145136879531e-02
         - 2.6394365568030508e-02
         - -4.2110686791297569e-03
         - 4.1681835999853548e-02
         - 6.7393152467294147e-03
         - 1.1312190286352235e-02
         - 2.0975665945309887e-02
         - -1.2633004645348971e-03
         - 2.4659094892272971e-04
         - 1.1866651232819133e-02
         - -2.1839927714186712e-03
         - 6.8344651657670411e-02
         - 1.0109077467510387e-02
         - 3.1488624942598215e-02
         - 5.2442409948971057e-02
         - -1.1713171042223738e-02
         - 1.8910058293201238e-02
         - 2.6119622168897169e-02
         - -5.0605507936934933e-03
         - 3.8884727163798434e-02
         - -5.1437922964123568e-03
         - 1.2437644197007788e-02
         - 2.2301669287116417e-02
         - -2.9599628213481839e-03
         - -2.0941344504973080e-03
         - 9.0995770190834147e-03
         - 4.2355137146932818e-03
         - 9.7609314981887841e-03
         - -7.5543676139283719e-03
         - -4.9977679900197157e-03
         - -4.4465241296649544e-03
         - 7.8622294938303263e-04
         - -6.5276775478418239e-03
         - -2.3802270065912423e-03
         - 4.9360772979902311e-03
         - 1.5209142364969498e-03
         - -2.3571068393780422e-03
         - -3.2711429226838762e-03
         - -1.2716986242053344e-02
         - 1.5926696068522515e-03
         - -4.0474295128538479e-03
         - -3.3136192746509724e-03
         - 4.2343420925721456e-03
         - 2.2793206755256642e-02
         - -3.2158969730645467e-03
         - 1.4905374957857194e-02
         - 1.7711423038509980e-02
         - -1.2140590141692978e-02
         - 5.6400962801457987e-03
         - 1.7952805304082570e-02
         - 1.9386528342818241e-03
         - -1.3866472425764215e-02
         - -5.8856021204885109e-03
         - -3.5469420582215659e-04
         - -1.2206897943384932e-02
         - -6.8470233034140958e-03
         - -5.3659710499310989e-03
         - -3.0481595212962195e-04
         - 1.1357982631348940e-03
         - 1.1057346094098195e-02
         - 4.7292940243259182e-03
         - 8.3116041605872971e-03
         - 1.3779871516068014e-02
         - -3.4932642401110359e-03
         - 8.0937694029810450e-03
         - 8.0467683856328114e-03
         - -4.5277385067255789e-03
         - 1.6064499337565535e-04
         - -3.9138847805279325e-03
         - -2.1566197080564028e-03
         - 3.4234815117755164e-03
         - 4.3770634786676910e-03
         - 8.6732779302032908e-04
         - -4.7151082203077069e-03
         - 2.4170480644987694e-03
         - 1.4177736325882926e-02
         - -2.0078258356296562e-03
         - 1.3088480346913607e-02
         - 1.6799902832925800e-02
         - -3.5467465288904704e-03
         - 5.9413487874142128e-03
         - 1.0312910654731573e-02
         - 5.3270094557143809e-03
         - 1.6362903964078315e-02
         - -4.9796484770438824e-03
         - 1.5718894488687896e-02
         - 7.1059167869758372e-03
         - -9.1180617934678194e-03
         - 1.0043749950467348e-02
         - 1.3450677288277989e-02
         - 6.4996444123499553e-04
         - 3.2443285082944147e-02
         - 2.9282799646017108e-03
         - 1.7679823804779182e-02
         - 3.1714819453518998e-02
         - -8.2734967223010956e-03
         - 1.8827369782957620e-03
         - 2.2743522303978005e-02
         - -5.6981517289073367e-03
         - 8.4690827551043239e-03
         - 1.1164660127536456e-03
         - 1.0871303565889015e-02
         - 6.9245111857293117e-04
         - 1.5349614856085183e-03
         - -1.0417117807191207e-03
         - 8.7818170396966599e-03
         - 8.2557294154470733e-04
         - -2.3739522876343202e-02
         - -6.6096490280582471e-03
         - 2.7488516552825887e-03
         - -8.6839788341119793e-03
         - -5.6481673600057960e-03
         - -8.1281607751366848e-05
         - -5.5203479356313581e-03
         - -5.5395907399928722e-03
         - -4.5248131850116002e-02
         - -6.3795857424356400e-03
         - -1.8305151111503108e-02
         - -2.6014894061743579e-02
         - -3.6390961752047588e-04
         - 3.0266311527818637e-03
         - -8.8037884020749340e-03
         - -9.3329331154553361e-03
         - -1.5751748260789615e-02
         - -7.9183120532214032e-03
         - -4.5516672279736822e-03
         - -1.0955673052811723e-02
         - -3.1666720540135065e-03
         - 3.2727972302929323e-03
         - -6.3039207946203185e-03
         - -1.7129732777562423e-03
         - 3.4532797004796070e-02
         - -2.9178958732515481e-03
         - 1.5730877551361832e-02
         - 3.3252655354207246e-02
         - -3.2169783061444164e-03
         - 5.0604739876710615e-03
         - 1.3966622869001832e-02
         - -2.0143042005799886e-03
         - 3.5741729337190387e-02
         - -2.0688754215525489e-03
         - 1.3767439697078186e-02
         - 2.0339913226743462e-02
         - -8.9334586612252621e-03
         - 5.5884420340959048e-03
         - 6.2509610196189083e-03
         - 4.8492493494238864e-03
         - 4.5092122061686918e-02
         - 4.7489159694924996e-03
         - 7.0221845798583964e-03
         - 2.9260231910561017e-02
         - -4.9214761665205555e-04
         - 7.9261828422021556e-03
         - 6.0943575505149122e-03
         - -1.7448620518006927e-03
         - -3.2864412217503748e-03
         - 2.0500627042030219e-03
         - 3.7397845957590830e-03
         - 5.8732057270240636e-03
         - 1.7580006106156264e-03
         - 2.1898452208274962e-03
         - -1.5957275640353979e-03
         - -1.3429865707178650e-04
         - -5.8291230708441355e-03
         - 7.7922534190506100e-03
         - -3.7514143827440949e-03
         - -3.3511171056564682e-03
         - 5.5895442318184942e-03
         - -6.1428626088315245e-04
         - 7.9041696032248476e-03
         - -5.4586243979337559e-03
         - -2.5898724554586496e-02
         - -5.9496438386615041e-03
         - -2.3606798248627874e-02
         - -2.2341666968667007e-02
         - 7.9301394614419481e-03
         - 9.5751167812973116e-04
         - -2.0853638795034189e-02
         - 1.5034163905583585e-03
         - -1.6941209768067463e-02
         - -7.2203657445142387e-03
         - -9.2041757051548861e-03
         - -4.9578572932379933e-03
         - 2.5171409656304642e-03
         - 5.5175031055619836e-03
         - -3.7296854839141119e-03
         - -4.5777057057667008e-03
         - 2.0109421527096702e-02
         - -1.7664383838910953e-03
         - 2.3678661859762033e-02
         - 2.5288849052337057e-02
         - -9.8444916334314882e-03
         - 8.5924349889721953e-03
         - 2.3482278145786049e-02
         - -5.3998866038318044e-03
         - 8.5936479331695298e-04
         - -3.5600481807427958e-03
         - -7.4875698246653641e-03
         - 1.1684373474565685e-03
         - 4.4434554271112932e-03
         - -7.6946352512913879e-03
         - -5.6675018314853156e-03
         - 4.5646917931127006e-03
         - -7.3758691314016831e-03
         - -9.2807732983157792e-03
         - -1.1953570131968188e-02
         - -9.6569959204105479e-03
         - 1.2215247243521733e-02
         - -6.1807051118497863e-03
         - -1.2245647048078203e-02
         - 6.5757075103280186e-03
         - 1.8910436341279688e-02
         - -3.7888072293608180e-03
         - 6.7932307095663292e-03
         - 1.3811259493190502e-02
         - -5.8663585547195397e-03
         - 6.0040081064887691e-03
         - 9.8572375080891294e-03
         - -4.9768169794972596e-03
         - 1.6310391351080075e-02
         - 3.7981679580265455e-03
         - 4.6027324124009814e-03
         - 5.0683499794374892e-03
         - -5.1102710848737335e-03
         - -2.4108311286886465e-03
         - -8.3168640336659782e-04
         - -1.7379282871270256e-03
         - 2.7087897093779931e-02
         - 9.5056874153516668e-03
         - 1.1020877158990246e-02
         - 1.2802389714187103e-02
         - -9.5037537930833874e-03
         - -2.3590782311347903e-03
         - 1.3265705826391506e-02
         - -6.0658723096217726e-03
         - -2.8370394983118535e-02
         - -2.3685275392516243e-03
         - -5.9718222698129202e-03
         - -1.9328787127997397e-02
         - -4.0825650451976694e-05
         - -3.9501910955693723e-03
         - -4.7122688188493429e-03
         - -4.3928512658415525e-04
         - -8.7107605684110037e-02
         - -7.6814789964568494e-04
         - -3.1575012448991600e-02
         - -6.4690424548010508e-02
         - 1.6496163119327473e-02
         - -2.1539614423968515e-02
         - -3.7173129642380925e-02
         - 8.5042413544374439e-03
         - -8.1806915688020690e-02
         - -8.1128143142737610e-04
         - -3.5261372380919281e-02
         - -6.1475843688641924e-02
         - 1.8206221965660310e-02
         - -1.3299460533190153e-02
         - -4.0393394943458512e-02
         - -1.9468310515067834e-03
         - -5.0149918403617925e-02
         - -1.6337813092393001e-03
         - -2.5597301809930192e-02
         - -3.0604208554492265e-02
         - 2.4879395692853482e-03
         - -1.0614094050669822e-02
         - -1.7289231994856141e-02
         - 1.6244590016799673e-03
         - -3.5379178837156904e-02
         - -1.2197970718924220e-03
         - -1.7857474219603858e-02
         - -3.2549262548973057e-02
         - 9.6127532821376916e-03
         - -1.2490789407257943e-02
         - -1.9989932127884275e-02
         - 3.0479387029768768e-03
         - 1.6896786339486981e-02
         - 3.4486025745626568e-03
         - 7.8917811095679611e-03
         - 1.3201718275211804e-02
         - -3.0079900945253050e-03
         - 5.1642172777435630e-03
         - 5.3576309945433385e-04
         - -2.1890004884885361e-03
         - -2.4350893253018632e-02
         - 5.0778367260321609e-02
         - -6.1746989973859301e-02
         - -3.5370269377854924e-02
         - -5.0195942653506576e-02
         - 5.3108892378128172e-03
         - -2.7684840769070622e-02
         - 6.6635564520685697e-02
      -
         - -3.8830634450794554e-01
         - 1.1588918577688401e-01
         - 2.3533835831300448e-01
         - -3.9827868130142474e-01
         - -1.6472279677018850e-01
         - -1.0541054539990462e-01
         - 5.6514700796575230e-02
         - 3.6436365392439607e-02
         - -3.5670938756563089e-02
         - 2.1205250963294811e-01
         - 2.3972726255048502e-01
         - -2.8021869946219236e-01
         - -2.5692562809701125e-01
         - 2.2204768070532999e-01
         - 1.2820637199241863e-01
         - -2.9525731784883436e-01
         - 2.6074002715772093e-01
         - -2.8844331160778211e-02
         - -1.7354635673217111e-01
         - -5.8104194042964262e-02
         - -8.2608798485660842e-02
         - -1.2669536424794806e-01
         - 1.3323079594397491e-01
         - -1.1295610501666496e-01
         - -1.7172530779430470e-01
         - -1.1995841635923413e-01
         - -1.3386876065120829e-01
         - -3.0844289246243484e-01
         - -1.7430221636630300e-01
         - -2.1618656673586689e-01
         - 5.5653865430129637e-02
         - 1.2676075760074487e-01
         - -3.2936867452822244e-01
         - -1.8773412953705407e-01
         - 7.5897730931274637e-02
         - 3.7489745098469474e-01
      -
         - 1.2273504561608262e+00
         - -5.5417872796258116e-01
         - -1.2805484458969685e+00
         - -2.8471392610240520e-01
         - -8.9113154011282347e-01
         - -9.9106062442605350e-02
         - 3.3367144237963819e-01
         - -4.3455236866680719e-01
         - 1.7126872451929404e-01
         - -6.5010667396167354e-01
         - -6.9299105987202014e-01
         - -4.1185915759772679e-01
         - 9.1008279580396062e-02
         - -5.5179877896132812e-01
         - -2.7974157637247216e-01
         - -3.2121884755093560e-01
         - -1.6717779640770883e-01
         - -2.0703828132238442e-01
         - 7.6406820363078554e-02
         - 2.3882115884523950e-01
         - 2.5014523845504476e-02
         - 3.6360572078384662e-01
         - 4.2871605335260438e-01
         - 7.1365469166247308e-01
         - -2.8364155882077208e-01
         - 4.6322770880745140e-01
         - -5.7048932170249644e-01
         - -1.6795684697499372e-02
         - 7.9431209322642959e-01
         - 1.0825830631390342e-01
         - 3.9796106558489766e-02
         - -7.8192629600490637e-01
         - -8.3524174555378072e-01
         - -1.8483694791191930e-02
         - 2.1657913369731396e-01
         - 2.3152487051989865e-01
         - 1.5654922753423045e-01
         - 5.6890726422726981e-02
         - -1.4240080629289029e-01
         - 2.2732294516961113e-04
         - -3.3358769734877974e-01
         - 1.7729403486965351e-01
         - -1.2447658889432503e-01
         - -3.2338415095457385e-01
         - -1.1847571575372810e-02
         - -1.9108039765514381e-01
         - 7.2351065633218048e-01
         - 2.0141966319911265e-02
         - 3.8074454197613933e-01
         - 4.7751757926396232e-01
         - 7.9054048280232125e-01
         - 6.4267732977039460e-01
         - -4.6631734869302799e-01
         - -4.0630848613491977e-01
         - -1.8901692072195281e-01
         - -1.1618182331129907e+00
         - -6.0541341828006967e-01
         - -2.1951110309957825e-01
         - 4.6831079019170696e-01
         - 6.9679832778753170e-01
         - -3.3706744679940825e-01
         - -8.0546638188485287e-01
         - -3.5602885712501953e-01
         - -6.7338336804462817e-01
         - -8.8468333096049256e-01
         - 4.1546853153820662e-01
         - 5.2059279983644813e-01
         - 4.9421048668491963e-01
         - 3.3851564336665591e-01
         - 8.3791243480586419e-01
         - -4.2728109169582856e-01
         - 7.3014446209078676e-01
         - -1.5845553393712414e-01
         - -5.9038345754217270e-01
         - -1.2444290195626584e-01
         - 8.3010880664102016e-01
         - -2.9552124167447236e-01
         - -1.0874233107277727e-01
         - 1.2003454356567573e+00
         - 2.6013766580447323e-01
         - -1.4212083877811434e+00
         - -3.2993765916553103e-01
         - 4.6778364459949739e-01
         - -3.1171845528495057e-01
         - -3.4219759078457940e-01
         - 7.4079101625700394e-01
         - -2.4976974012409181e-01
         - 2.2112414624747107e-01
         - 4.6986908365009644e-01
         - 2.1241830522380649e-02
         - -5.9973080039774973e-01
         - 7.0018830826953959e-01
         - 3.9932405092678508e-01
         - 6.0524623729509197e-01
         - 2.8012893123751442e-01
         - 5.0814873863039933e-01
         - -2.9737810536669507e-01
         - 1.1100108730869536e-01
         - 1.5457313947155035e-01
         - -6.2206180486827656e-01
         - -3.0167951164521423e-01
         - -8.1128216108035632e-03
         - 3.7429213881246959e-01
         - -2.2908275140276993e-01
         - -1.4106727810927838e-01
         - -1.2889216066163317e-01
         - 2.2666286375359737e-01
         - 7.4404024430449259e-02
         - -2.1091885420553860e-01
         - -3.8836679233670589e-02
         - 6.1638061473223314e-03
         - -2.4528580780040540e-01
         - 1.1536297715139529e-01
         - -9.2774202879972525e-02
         - -1.7439160528668801e-01
         - -3.9869661772185733e-02
         - 1.4923874443187302e-01
         - -2.4380894080396409e-01
         - -1.8323319580960434e-01
         - -1.6938205966367753e-01
         - -1.0986883944813809e-01
         - -2.0338074864846536e-01
         - 8.5629232595417257e-02
         - -3.2471351242572735e-02
         - 6.4851925857825704e-02
         - 2.0650097377056181e-01
         - 1.7920472515082564e-01
         - 1.4389885335241995e-01
         - -1.5997837291181288e-02
         - 2.0085393079542149e-01
